<?xml version="1.0"?>
<opencv_storage>
<cascade>
  <stageType>BOOST</stageType>
  <featureType>HAAR</featureType>
  <height>100</height>
  <width>48</width>
  <stageParams>
    <boostType>GAB</boostType>
    <minHitRate>9.9900001287460327e-01</minHitRate>
    <maxFalseAlarm>5.0000000000000000e-01</maxFalseAlarm>
    <weightTrimRate>9.4999999999999996e-01</weightTrimRate>
    <maxDepth>1</maxDepth>
    <maxWeakCount>100</maxWeakCount></stageParams>
  <featureParams>
    <maxCatCount>0</maxCatCount>
    <featSize>1</featSize>
    <mode>ALL</mode></featureParams>
  <stageNum>10</stageNum>
  <stages>
    <!-- stage 0 -->
    <_>
      <maxWeakCount>9</maxWeakCount>
      <stageThreshold>-5.7002431154251099e-01</stageThreshold>
      <weakClassifiers>
        <_>
          <internalNodes>
            0 -1 3 -5.4522072896361351e-03</internalNodes>
          <leafValues>
            8.9673912525177002e-01 1.9101123511791229e-01</leafValues></_>
        <_>
          <internalNodes>
            0 -1 67 -4.5203538611531258e-03</internalNodes>
          <leafValues>
            7.6018100976943970e-01 -1.5855889022350311e-01</leafValues></_>
        <_>
          <internalNodes>
            0 -1 55 -2.4093713145703077e-03</internalNodes>
          <leafValues>
            8.1264895200729370e-01 -2.4169139564037323e-01</leafValues></_>
        <_>
          <internalNodes>
            0 -1 47 -1.1692522093653679e-03</internalNodes>
          <leafValues>
            8.7361693382263184e-01 -2.4075311422348022e-01</leafValues></_>
        <_>
          <internalNodes>
            0 -1 48 5.7394534815102816e-04</internalNodes>
          <leafValues>
            -2.1101664006710052e-01 7.9143953323364258e-01</leafValues></_>
        <_>
          <internalNodes>
            0 -1 91 6.8223671405576169e-05</internalNodes>
          <leafValues>
            3.7358778715133667e-01 -6.1303949356079102e-01</leafValues></_>
        <_>
          <internalNodes>
            0 -1 82 1.7649767687544227e-04</internalNodes>
          <leafValues>
            -4.1809147596359253e-01 5.2892637252807617e-01</leafValues></_>
        <_>
          <internalNodes>
            0 -1 129 -2.0571532659232616e-03</internalNodes>
          <leafValues>
            7.8325611352920532e-01 -2.5994250178337097e-01</leafValues></_>
        <_>
          <internalNodes>
            0 -1 92 -1.5593797797919251e-05</internalNodes>
          <leafValues>
            -4.7949647903442383e-01 3.9543071389198303e-01</leafValues></_></weakClassifiers></_>
    <!-- stage 1 -->
    <_>
      <maxWeakCount>12</maxWeakCount>
      <stageThreshold>-7.2468066215515137e-01</stageThreshold>
      <weakClassifiers>
        <_>
          <internalNodes>
            0 -1 1 -5.1152273081243038e-03</internalNodes>
          <leafValues>
            8.9037430286407471e-01 1.8023255467414856e-01</leafValues></_>
        <_>
          <internalNodes>
            0 -1 8 -7.8116636723279953e-04</internalNodes>
          <leafValues>
            7.5858205556869507e-01 -1.9664555788040161e-01</leafValues></_>
        <_>
          <internalNodes>
            0 -1 59 7.2470298036932945e-03</internalNodes>
          <leafValues>
            -2.1836589276790619e-01 7.9288768768310547e-01</leafValues></_>
        <_>
          <internalNodes>
            0 -1 128 -1.3981098891235888e-04</internalNodes>
          <leafValues>
            9.3152344226837158e-01 -1.6119742393493652e-01</leafValues></_>
        <_>
          <internalNodes>
            0 -1 54 -2.6517471997067332e-04</internalNodes>
          <leafValues>
            8.8919383287429810e-01 -1.8346031010150909e-01</leafValues></_>
        <_>
          <internalNodes>
            0 -1 71 2.2807922214269638e-02</internalNodes>
          <leafValues>
            -3.0492976307868958e-01 5.9887754917144775e-01</leafValues></_>
        <_>
          <internalNodes>
            0 -1 45 1.0772992391139269e-03</internalNodes>
          <leafValues>
            -2.0378060638904572e-01 7.8445190191268921e-01</leafValues></_>
        <_>
          <internalNodes>
            0 -1 40 -4.9125975929200649e-03</internalNodes>
          <leafValues>
            6.8818014860153198e-01 -2.7110317349433899e-01</leafValues></_>
        <_>
          <internalNodes>
            0 -1 57 2.6124122086912394e-04</internalNodes>
          <leafValues>
            -2.2159084677696228e-01 7.4401813745498657e-01</leafValues></_>
        <_>
          <internalNodes>
            0 -1 11 -7.1113393642008305e-04</internalNodes>
          <leafValues>
            7.9881888628005981e-01 -2.0385591685771942e-01</leafValues></_>
        <_>
          <internalNodes>
            0 -1 34 -8.3595765754580498e-03</internalNodes>
          <leafValues>
            8.3119380474090576e-01 -1.8703612685203552e-01</leafValues></_>
        <_>
          <internalNodes>
            0 -1 103 3.8232307997532189e-04</internalNodes>
          <leafValues>
            3.4324511885643005e-01 -5.6059712171554565e-01</leafValues></_></weakClassifiers></_>
    <!-- stage 2 -->
    <_>
      <maxWeakCount>12</maxWeakCount>
      <stageThreshold>-8.3029210567474365e-01</stageThreshold>
      <weakClassifiers>
        <_>
          <internalNodes>
            0 -1 75 2.2773565724492073e-03</internalNodes>
          <leafValues>
            2.2352941334247589e-01 8.6702126264572144e-01</leafValues></_>
        <_>
          <internalNodes>
            0 -1 32 2.2142434027045965e-03</internalNodes>
          <leafValues>
            -1.1878821998834610e-01 8.0233985185623169e-01</leafValues></_>
        <_>
          <internalNodes>
            0 -1 89 3.3106156624853611e-03</internalNodes>
          <leafValues>
            -2.9219198226928711e-01 5.8126509189605713e-01</leafValues></_>
        <_>
          <internalNodes>
            0 -1 46 5.2873441018164158e-04</internalNodes>
          <leafValues>
            -2.0495907962322235e-01 7.4892121553421021e-01</leafValues></_>
        <_>
          <internalNodes>
            0 -1 39 3.1101997010409832e-03</internalNodes>
          <leafValues>
            -2.5772488117218018e-01 6.6626715660095215e-01</leafValues></_>
        <_>
          <internalNodes>
            0 -1 108 3.4111821150872856e-05</internalNodes>
          <leafValues>
            -4.1587278246879578e-01 4.0101796388626099e-01</leafValues></_>
        <_>
          <internalNodes>
            0 -1 133 1.2352816702332348e-04</internalNodes>
          <leafValues>
            -1.9628815352916718e-01 8.9239794015884399e-01</leafValues></_>
        <_>
          <internalNodes>
            0 -1 106 -1.6785586922196671e-05</internalNodes>
          <leafValues>
            -4.3151772022247314e-01 3.7190717458724976e-01</leafValues></_>
        <_>
          <internalNodes>
            0 -1 131 6.2309985514730215e-04</internalNodes>
          <leafValues>
            -2.2428934276103973e-01 7.6830828189849854e-01</leafValues></_>
        <_>
          <internalNodes>
            0 -1 33 -5.6113780010491610e-04</internalNodes>
          <leafValues>
            7.0860481262207031e-01 -2.0802338421344757e-01</leafValues></_>
        <_>
          <internalNodes>
            0 -1 86 1.0037857573479414e-03</internalNodes>
          <leafValues>
            -3.3403342962265015e-01 4.9977090954780579e-01</leafValues></_>
        <_>
          <internalNodes>
            0 -1 121 -8.8054849766194820e-04</internalNodes>
          <leafValues>
            6.7374038696289062e-01 -2.3618721961975098e-01</leafValues></_></weakClassifiers></_>
    <!-- stage 3 -->
    <_>
      <maxWeakCount>15</maxWeakCount>
      <stageThreshold>-5.6547772884368896e-01</stageThreshold>
      <weakClassifiers>
        <_>
          <internalNodes>
            0 -1 83 1.4256639406085014e-03</internalNodes>
          <leafValues>
            7.5369459390640259e-01 -4.8051947355270386e-01</leafValues></_>
        <_>
          <internalNodes>
            0 -1 2 -9.0779447928071022e-03</internalNodes>
          <leafValues>
            7.0371586084365845e-01 -3.1965410709381104e-01</leafValues></_>
        <_>
          <internalNodes>
            0 -1 13 -6.3244989141821861e-03</internalNodes>
          <leafValues>
            7.2784477472305298e-01 -1.6857494413852692e-01</leafValues></_>
        <_>
          <internalNodes>
            0 -1 113 -6.6727465309668332e-05</internalNodes>
          <leafValues>
            -4.8195883631706238e-01 3.2557305693626404e-01</leafValues></_>
        <_>
          <internalNodes>
            0 -1 21 -3.9141741581261158e-04</internalNodes>
          <leafValues>
            8.1698507070541382e-01 -1.8382680416107178e-01</leafValues></_>
        <_>
          <internalNodes>
            0 -1 125 9.3207240570336580e-04</internalNodes>
          <leafValues>
            -1.9103269279003143e-01 7.7357691526412964e-01</leafValues></_>
        <_>
          <internalNodes>
            0 -1 124 -1.1318654287606478e-03</internalNodes>
          <leafValues>
            6.2408268451690674e-01 -2.1842162311077118e-01</leafValues></_>
        <_>
          <internalNodes>
            0 -1 78 4.5009152963757515e-03</internalNodes>
          <leafValues>
            -2.2905017435550690e-01 5.9515142440795898e-01</leafValues></_>
        <_>
          <internalNodes>
            0 -1 35 4.7919759526848793e-03</internalNodes>
          <leafValues>
            -2.5221693515777588e-01 5.8777648210525513e-01</leafValues></_>
        <_>
          <internalNodes>
            0 -1 80 1.4818154159002006e-04</internalNodes>
          <leafValues>
            -3.6864894628524780e-01 4.0789800882339478e-01</leafValues></_>
        <_>
          <internalNodes>
            0 -1 52 -1.4238455332815647e-04</internalNodes>
          <leafValues>
            7.9891717433929443e-01 -1.7679075896739960e-01</leafValues></_>
        <_>
          <internalNodes>
            0 -1 0 -6.2289054039865732e-04</internalNodes>
          <leafValues>
            6.1780786514282227e-01 -2.2684456408023834e-01</leafValues></_>
        <_>
          <internalNodes>
            0 -1 110 9.7204314079135656e-04</internalNodes>
          <leafValues>
            -2.7647089958190918e-01 5.3192287683486938e-01</leafValues></_>
        <_>
          <internalNodes>
            0 -1 115 2.1138333249837160e-04</internalNodes>
          <leafValues>
            3.4595397114753723e-01 -4.1445547342300415e-01</leafValues></_>
        <_>
          <internalNodes>
            0 -1 116 1.4326241798698902e-03</internalNodes>
          <leafValues>
            -2.0336847007274628e-01 7.2300708293914795e-01</leafValues></_></weakClassifiers></_>
    <!-- stage 4 -->
    <_>
      <maxWeakCount>15</maxWeakCount>
      <stageThreshold>-6.5313971042633057e-01</stageThreshold>
      <weakClassifiers>
        <_>
          <internalNodes>
            0 -1 53 2.5782347656786442e-03</internalNodes>
          <leafValues>
            2.7536231279373169e-01 8.4738957881927490e-01</leafValues></_>
        <_>
          <internalNodes>
            0 -1 31 1.2221281649544835e-03</internalNodes>
          <leafValues>
            -1.5480947494506836e-01 6.8685358762741089e-01</leafValues></_>
        <_>
          <internalNodes>
            0 -1 97 5.7549350458430126e-05</internalNodes>
          <leafValues>
            3.0285662412643433e-01 -5.5438721179962158e-01</leafValues></_>
        <_>
          <internalNodes>
            0 -1 10 3.0492725782096386e-03</internalNodes>
          <leafValues>
            -2.0513832569122314e-01 7.2766071557998657e-01</leafValues></_>
        <_>
          <internalNodes>
            0 -1 5 1.6635551583021879e-03</internalNodes>
          <leafValues>
            -2.7519750595092773e-01 6.3453298807144165e-01</leafValues></_>
        <_>
          <internalNodes>
            0 -1 132 -4.3027900392189622e-04</internalNodes>
          <leafValues>
            8.5362422466278076e-01 -1.2664017081260681e-01</leafValues></_>
        <_>
          <internalNodes>
            0 -1 107 2.2063459255150519e-05</internalNodes>
          <leafValues>
            3.7782502174377441e-01 -4.6289563179016113e-01</leafValues></_>
        <_>
          <internalNodes>
            0 -1 138 -1.1958996765315533e-04</internalNodes>
          <leafValues>
            7.7628976106643677e-01 -1.9886019825935364e-01</leafValues></_>
        <_>
          <internalNodes>
            0 -1 51 3.3726741094142199e-04</internalNodes>
          <leafValues>
            -1.6140434145927429e-01 7.2943174839019775e-01</leafValues></_>
        <_>
          <internalNodes>
            0 -1 43 1.2466104235500097e-03</internalNodes>
          <leafValues>
            -1.4970374107360840e-01 9.4408261775970459e-01</leafValues></_>
        <_>
          <internalNodes>
            0 -1 72 -2.0773636177182198e-02</internalNodes>
          <leafValues>
            5.8599859476089478e-01 -2.8979015350341797e-01</leafValues></_>
        <_>
          <internalNodes>
            0 -1 126 1.3850971590727568e-03</internalNodes>
          <leafValues>
            -1.7084112763404846e-01 7.6448553800582886e-01</leafValues></_>
        <_>
          <internalNodes>
            0 -1 98 3.8208690966712311e-05</internalNodes>
          <leafValues>
            3.6705154180526733e-01 -4.3072882294654846e-01</leafValues></_>
        <_>
          <internalNodes>
            0 -1 127 -3.1126645626500249e-04</internalNodes>
          <leafValues>
            7.7908730506896973e-01 -2.0246483385562897e-01</leafValues></_>
        <_>
          <internalNodes>
            0 -1 28 -4.9230619333684444e-04</internalNodes>
          <leafValues>
            7.4571108818054199e-01 -1.7640401422977448e-01</leafValues></_></weakClassifiers></_>
    <!-- stage 5 -->
    <_>
      <maxWeakCount>15</maxWeakCount>
      <stageThreshold>-8.8748919963836670e-01</stageThreshold>
      <weakClassifiers>
        <_>
          <internalNodes>
            0 -1 85 2.4841696722432971e-04</internalNodes>
          <leafValues>
            7.9765707254409790e-01 -1.3725490868091583e-01</leafValues></_>
        <_>
          <internalNodes>
            0 -1 58 3.5273018293082714e-03</internalNodes>
          <leafValues>
            -2.2483271360397339e-01 7.2381240129470825e-01</leafValues></_>
        <_>
          <internalNodes>
            0 -1 7 -9.0490654110908508e-04</internalNodes>
          <leafValues>
            4.7586789727210999e-01 -2.6777049899101257e-01</leafValues></_>
        <_>
          <internalNodes>
            0 -1 99 -6.5966392867267132e-05</internalNodes>
          <leafValues>
            -4.4400146603584290e-01 3.2087010145187378e-01</leafValues></_>
        <_>
          <internalNodes>
            0 -1 15 2.4522717576473951e-03</internalNodes>
          <leafValues>
            -2.3445336520671844e-01 6.2774968147277832e-01</leafValues></_>
        <_>
          <internalNodes>
            0 -1 120 -6.4401183044537902e-04</internalNodes>
          <leafValues>
            8.5101652145385742e-01 -2.0192262530326843e-01</leafValues></_>
        <_>
          <internalNodes>
            0 -1 101 2.7102683816337958e-05</internalNodes>
          <leafValues>
            3.7699502706527710e-01 -3.4873121976852417e-01</leafValues></_>
        <_>
          <internalNodes>
            0 -1 50 -1.3526716793421656e-04</internalNodes>
          <leafValues>
            5.9163558483123779e-01 -2.7195563912391663e-01</leafValues></_>
        <_>
          <internalNodes>
            0 -1 26 7.3275482282042503e-04</internalNodes>
          <leafValues>
            2.1682277321815491e-01 -6.7063039541244507e-01</leafValues></_>
        <_>
          <internalNodes>
            0 -1 36 9.8147502285428345e-05</internalNodes>
          <leafValues>
            -2.1178992092609406e-01 6.8206107616424561e-01</leafValues></_>
        <_>
          <internalNodes>
            0 -1 104 2.5473593268543482e-04</internalNodes>
          <leafValues>
            3.1687393784523010e-01 -4.5850715041160583e-01</leafValues></_>
        <_>
          <internalNodes>
            0 -1 29 -3.6025268491357565e-04</internalNodes>
          <leafValues>
            9.8162180185317993e-01 -1.5446890890598297e-01</leafValues></_>
        <_>
          <internalNodes>
            0 -1 114 -9.0470028226263821e-05</internalNodes>
          <leafValues>
            -7.1295112371444702e-01 2.4595390260219574e-01</leafValues></_>
        <_>
          <internalNodes>
            0 -1 137 -1.9630532187875360e-04</internalNodes>
          <leafValues>
            7.7491563558578491e-01 -2.1224997937679291e-01</leafValues></_>
        <_>
          <internalNodes>
            0 -1 12 8.9020235463976860e-04</internalNodes>
          <leafValues>
            -1.1813818663358688e-01 9.3031305074691772e-01</leafValues></_></weakClassifiers></_>
    <!-- stage 6 -->
    <_>
      <maxWeakCount>17</maxWeakCount>
      <stageThreshold>-7.3134773969650269e-01</stageThreshold>
      <weakClassifiers>
        <_>
          <internalNodes>
            0 -1 25 -5.2059805020689964e-03</internalNodes>
          <leafValues>
            8.9247310161590576e-01 3.3333334326744080e-01</leafValues></_>
        <_>
          <internalNodes>
            0 -1 88 -1.8751510651782155e-05</internalNodes>
          <leafValues>
            -2.4954184889793396e-01 5.2575713396072388e-01</leafValues></_>
        <_>
          <internalNodes>
            0 -1 17 -1.4627447817474604e-03</internalNodes>
          <leafValues>
            8.6046999692916870e-01 -1.2533347308635712e-01</leafValues></_>
        <_>
          <internalNodes>
            0 -1 30 -4.2763573583215475e-04</internalNodes>
          <leafValues>
            9.0528005361557007e-01 -1.4951221644878387e-01</leafValues></_>
        <_>
          <internalNodes>
            0 -1 84 3.4249358577653766e-05</internalNodes>
          <leafValues>
            3.1854659318923950e-01 -4.0584403276443481e-01</leafValues></_>
        <_>
          <internalNodes>
            0 -1 27 9.7073221695609391e-05</internalNodes>
          <leafValues>
            -1.6976658999919891e-01 8.5840761661529541e-01</leafValues></_>
        <_>
          <internalNodes>
            0 -1 95 7.7823178799008019e-06</internalNodes>
          <leafValues>
            -3.3645293116569519e-01 3.9167955517768860e-01</leafValues></_>
        <_>
          <internalNodes>
            0 -1 38 3.9690411649644375e-03</internalNodes>
          <leafValues>
            -1.6274328529834747e-01 8.9698988199234009e-01</leafValues></_>
        <_>
          <internalNodes>
            0 -1 134 2.7257381589151919e-04</internalNodes>
          <leafValues>
            -1.1412240564823151e-01 8.9164090156555176e-01</leafValues></_>
        <_>
          <internalNodes>
            0 -1 141 6.0209608636796474e-04</internalNodes>
          <leafValues>
            -1.4802399277687073e-01 6.5191692113876343e-01</leafValues></_>
        <_>
          <internalNodes>
            0 -1 112 -9.9535202025435865e-05</internalNodes>
          <leafValues>
            -6.8518126010894775e-01 2.6258876919746399e-01</leafValues></_>
        <_>
          <internalNodes>
            0 -1 79 -5.1278772298246622e-04</internalNodes>
          <leafValues>
            6.4378196001052856e-01 -2.4273985624313354e-01</leafValues></_>
        <_>
          <internalNodes>
            0 -1 74 2.8777983970940113e-03</internalNodes>
          <leafValues>
            -2.0789279043674469e-01 6.5400755405426025e-01</leafValues></_>
        <_>
          <internalNodes>
            0 -1 56 -3.2918422948569059e-04</internalNodes>
          <leafValues>
            6.1219191551208496e-01 -2.0939640700817108e-01</leafValues></_>
        <_>
          <internalNodes>
            0 -1 100 -5.2947321819374338e-05</internalNodes>
          <leafValues>
            -4.5262113213539124e-01 3.0313950777053833e-01</leafValues></_>
        <_>
          <internalNodes>
            0 -1 139 1.4772755093872547e-04</internalNodes>
          <leafValues>
            -1.7634758353233337e-01 7.5270771980285645e-01</leafValues></_>
        <_>
          <internalNodes>
            0 -1 49 -2.7780066011473536e-04</internalNodes>
          <leafValues>
            -5.2732104063034058e-01 2.5696182250976562e-01</leafValues></_></weakClassifiers></_>
    <!-- stage 7 -->
    <_>
      <maxWeakCount>17</maxWeakCount>
      <stageThreshold>-5.5630797147750854e-01</stageThreshold>
      <weakClassifiers>
        <_>
          <internalNodes>
            0 -1 93 6.4479000866413116e-04</internalNodes>
          <leafValues>
            7.4975371360778809e-01 -4.2857143282890320e-01</leafValues></_>
        <_>
          <internalNodes>
            0 -1 77 -4.4988268055021763e-03</internalNodes>
          <leafValues>
            7.0016819238662720e-01 -1.8154190480709076e-01</leafValues></_>
        <_>
          <internalNodes>
            0 -1 109 3.6006575101055205e-05</internalNodes>
          <leafValues>
            3.4967732429504395e-01 -4.2342039942741394e-01</leafValues></_>
        <_>
          <internalNodes>
            0 -1 122 6.8567995913326740e-04</internalNodes>
          <leafValues>
            -2.1773001551628113e-01 5.9766829013824463e-01</leafValues></_>
        <_>
          <internalNodes>
            0 -1 119 -7.0077781856525689e-05</internalNodes>
          <leafValues>
            -4.9300482869148254e-01 2.7806520462036133e-01</leafValues></_>
        <_>
          <internalNodes>
            0 -1 23 4.1036910261027515e-04</internalNodes>
          <leafValues>
            -1.7056255042552948e-01 7.5287538766860962e-01</leafValues></_>
        <_>
          <internalNodes>
            0 -1 16 -3.0964696779847145e-03</internalNodes>
          <leafValues>
            6.4839005470275879e-01 -2.1709617972373962e-01</leafValues></_>
        <_>
          <internalNodes>
            0 -1 130 2.2452692501246929e-03</internalNodes>
          <leafValues>
            -2.3435917496681213e-01 4.8689576983451843e-01</leafValues></_>
        <_>
          <internalNodes>
            0 -1 41 -2.1569612435996532e-03</internalNodes>
          <leafValues>
            7.3320358991622925e-01 -1.8829402327537537e-01</leafValues></_>
        <_>
          <internalNodes>
            0 -1 105 -3.2286243367707357e-05</internalNodes>
          <leafValues>
            -3.9938339591026306e-01 3.2499489188194275e-01</leafValues></_>
        <_>
          <internalNodes>
            0 -1 136 -6.3983592553995550e-05</internalNodes>
          <leafValues>
            7.9770994186401367e-01 -1.8654988706111908e-01</leafValues></_>
        <_>
          <internalNodes>
            0 -1 81 -7.6916721809539013e-06</internalNodes>
          <leafValues>
            -4.0682473778724670e-01 3.3762696385383606e-01</leafValues></_>
        <_>
          <internalNodes>
            0 -1 135 -1.9232003251090646e-04</internalNodes>
          <leafValues>
            7.4388766288757324e-01 -1.9439010322093964e-01</leafValues></_>
        <_>
          <internalNodes>
            0 -1 102 -4.9127454985864460e-05</internalNodes>
          <leafValues>
            -5.0680857896804810e-01 3.0398067831993103e-01</leafValues></_>
        <_>
          <internalNodes>
            0 -1 37 7.5163603469263762e-05</internalNodes>
          <leafValues>
            -2.7051195502281189e-01 5.8183366060256958e-01</leafValues></_>
        <_>
          <internalNodes>
            0 -1 70 -3.8947496796026826e-04</internalNodes>
          <leafValues>
            4.3489801883697510e-01 -3.2100880146026611e-01</leafValues></_>
        <_>
          <internalNodes>
            0 -1 6 1.2528921943157911e-03</internalNodes>
          <leafValues>
            1.5934899449348450e-01 -8.4453517198562622e-01</leafValues></_></weakClassifiers></_>
    <!-- stage 8 -->
    <_>
      <maxWeakCount>14</maxWeakCount>
      <stageThreshold>-3.1998717784881592e-01</stageThreshold>
      <weakClassifiers>
        <_>
          <internalNodes>
            0 -1 111 -9.0862289653159678e-05</internalNodes>
          <leafValues>
            4.1095890104770660e-02 7.6321351528167725e-01</leafValues></_>
        <_>
          <internalNodes>
            0 -1 61 3.3735665492713451e-03</internalNodes>
          <leafValues>
            -1.2250366806983948e-01 7.0439577102661133e-01</leafValues></_>
        <_>
          <internalNodes>
            0 -1 20 -1.0357326827943325e-03</internalNodes>
          <leafValues>
            7.6390415430068970e-01 -1.7713358998298645e-01</leafValues></_>
        <_>
          <internalNodes>
            0 -1 14 -8.9323648717254400e-04</internalNodes>
          <leafValues>
            7.1492636203765869e-01 -2.4627266824245453e-01</leafValues></_>
        <_>
          <internalNodes>
            0 -1 19 1.3747681805398315e-04</internalNodes>
          <leafValues>
            -9.5018617808818817e-02 8.5729706287384033e-01</leafValues></_>
        <_>
          <internalNodes>
            0 -1 50 -2.5648053269833326e-04</internalNodes>
          <leafValues>
            7.6782995462417603e-01 -1.1749321967363358e-01</leafValues></_>
        <_>
          <internalNodes>
            0 -1 90 9.3060472863726318e-05</internalNodes>
          <leafValues>
            3.3221849799156189e-01 -4.1021904349327087e-01</leafValues></_>
        <_>
          <internalNodes>
            0 -1 18 -5.6635541841387749e-04</internalNodes>
          <leafValues>
            9.1888290643692017e-01 -1.3440175354480743e-01</leafValues></_>
        <_>
          <internalNodes>
            0 -1 63 6.6176995635032654e-02</internalNodes>
          <leafValues>
            -1.6171857714653015e-01 7.2206789255142212e-01</leafValues></_>
        <_>
          <internalNodes>
            0 -1 42 3.0257581965997815e-04</internalNodes>
          <leafValues>
            -2.2585898637771606e-01 5.8116561174392700e-01</leafValues></_>
        <_>
          <internalNodes>
            0 -1 62 1.1246272333664820e-04</internalNodes>
          <leafValues>
            -3.0314147472381592e-01 4.4056817889213562e-01</leafValues></_>
        <_>
          <internalNodes>
            0 -1 65 -1.4411199372261763e-03</internalNodes>
          <leafValues>
            5.0977665185928345e-01 -2.3866917192935944e-01</leafValues></_>
        <_>
          <internalNodes>
            0 -1 123 9.3161885160952806e-05</internalNodes>
          <leafValues>
            -1.6538533568382263e-01 6.8676930665969849e-01</leafValues></_>
        <_>
          <internalNodes>
            0 -1 22 2.5638132356107235e-03</internalNodes>
          <leafValues>
            -1.9464036822319031e-01 5.7090574502944946e-01</leafValues></_></weakClassifiers></_>
    <!-- stage 9 -->
    <_>
      <maxWeakCount>17</maxWeakCount>
      <stageThreshold>-4.8718881607055664e-01</stageThreshold>
      <weakClassifiers>
        <_>
          <internalNodes>
            0 -1 64 -8.4865745157003403e-03</internalNodes>
          <leafValues>
            -5.7894736528396606e-01 7.3526567220687866e-01</leafValues></_>
        <_>
          <internalNodes>
            0 -1 44 3.9735265076160431e-02</internalNodes>
          <leafValues>
            -1.4959782361984253e-01 8.7380039691925049e-01</leafValues></_>
        <_>
          <internalNodes>
            0 -1 9 -1.0887805838137865e-03</internalNodes>
          <leafValues>
            5.7735359668731689e-01 -2.5912827253341675e-01</leafValues></_>
        <_>
          <internalNodes>
            0 -1 4 -1.0236506204819307e-04</internalNodes>
          <leafValues>
            -4.7694501280784607e-01 3.1217059493064880e-01</leafValues></_>
        <_>
          <internalNodes>
            0 -1 68 -3.8642525672912598e-02</internalNodes>
          <leafValues>
            7.7086180448532104e-01 -2.1973121166229248e-01</leafValues></_>
        <_>
          <internalNodes>
            0 -1 60 1.4536766684614122e-04</internalNodes>
          <leafValues>
            -2.2319224476814270e-01 6.2806618213653564e-01</leafValues></_>
        <_>
          <internalNodes>
            0 -1 66 -3.0248383991420269e-03</internalNodes>
          <leafValues>
            7.0428657531738281e-01 -2.0576398074626923e-01</leafValues></_>
        <_>
          <internalNodes>
            0 -1 24 -4.5211275573819876e-04</internalNodes>
          <leafValues>
            6.2626349925994873e-01 -2.4488526582717896e-01</leafValues></_>
        <_>
          <internalNodes>
            0 -1 96 1.2205012899357826e-04</internalNodes>
          <leafValues>
            3.8421186804771423e-01 -4.4032806158065796e-01</leafValues></_>
        <_>
          <internalNodes>
            0 -1 76 -4.4082634849473834e-04</internalNodes>
          <leafValues>
            -5.6844562292098999e-01 2.3556141555309296e-01</leafValues></_>
        <_>
          <internalNodes>
            0 -1 94 2.8960371855646372e-04</internalNodes>
          <leafValues>
            -2.6895621418952942e-01 5.2461767196655273e-01</leafValues></_>
        <_>
          <internalNodes>
            0 -1 73 -1.3092221342958510e-04</internalNodes>
          <leafValues>
            -6.4253836870193481e-01 2.2528298199176788e-01</leafValues></_>
        <_>
          <internalNodes>
            0 -1 69 1.3610860332846642e-03</internalNodes>
          <leafValues>
            -3.8312149047851562e-01 4.2519125342369080e-01</leafValues></_>
        <_>
          <internalNodes>
            0 -1 140 -1.9018547027371824e-04</internalNodes>
          <leafValues>
            5.6829196214675903e-01 -2.3348060250282288e-01</leafValues></_>
        <_>
          <internalNodes>
            0 -1 87 9.1186120698694140e-05</internalNodes>
          <leafValues>
            3.4457644820213318e-01 -4.1434708237648010e-01</leafValues></_>
        <_>
          <internalNodes>
            0 -1 118 1.5036675904411823e-04</internalNodes>
          <leafValues>
            -2.3316618800163269e-01 7.3382258415222168e-01</leafValues></_>
        <_>
          <internalNodes>
            0 -1 117 -1.1041484773159027e-02</internalNodes>
          <leafValues>
            5.2130538225173950e-01 -2.2257356345653534e-01</leafValues></_></weakClassifiers></_></stages>
  <features>
    <_>
      <rects>
        <_>
          0 25 6 3 -1.</_>
        <_>
          2 26 2 1 9.</_></rects>
      <tilted>0</tilted></_>
    <_>
      <rects>
        <_>
          0 43 20 15 -1.</_>
        <_>
          5 43 10 15 2.</_></rects>
      <tilted>0</tilted></_>
    <_>
      <rects>
        <_>
          0 43 20 16 -1.</_>
        <_>
          5 43 10 16 2.</_></rects>
      <tilted>0</tilted></_>
    <_>
      <rects>
        <_>
          0 44 20 14 -1.</_>
        <_>
          5 44 10 14 2.</_></rects>
      <tilted>0</tilted></_>
    <_>
      <rects>
        <_>
          0 47 2 12 -1.</_>
        <_>
          0 47 1 6 2.</_>
        <_>
          1 53 1 6 2.</_></rects>
      <tilted>0</tilted></_>
    <_>
      <rects>
        <_>
          0 63 4 36 -1.</_>
        <_>
          0 63 2 18 2.</_>
        <_>
          2 81 2 18 2.</_></rects>
      <tilted>0</tilted></_>
    <_>
      <rects>
        <_>
          0 71 47 3 -1.</_>
        <_>
          0 72 47 1 3.</_></rects>
      <tilted>0</tilted></_>
    <_>
      <rects>
        <_>
          1 7 2 72 -1.</_>
        <_>
          2 7 1 72 2.</_></rects>
      <tilted>0</tilted></_>
    <_>
      <rects>
        <_>
          1 9 2 78 -1.</_>
        <_>
          2 9 1 78 2.</_></rects>
      <tilted>0</tilted></_>
    <_>
      <rects>
        <_>
          1 11 2 77 -1.</_>
        <_>
          2 11 1 77 2.</_></rects>
      <tilted>0</tilted></_>
    <_>
      <rects>
        <_>
          1 14 4 66 -1.</_>
        <_>
          1 14 2 33 2.</_>
        <_>
          3 47 2 33 2.</_></rects>
      <tilted>0</tilted></_>
    <_>
      <rects>
        <_>
          1 16 3 16 -1.</_>
        <_>
          2 16 1 16 3.</_></rects>
      <tilted>0</tilted></_>
    <_>
      <rects>
        <_>
          1 20 2 24 -1.</_>
        <_>
          1 20 1 12 2.</_>
        <_>
          2 32 1 12 2.</_></rects>
      <tilted>0</tilted></_>
    <_>
      <rects>
        <_>
          1 31 12 24 -1.</_>
        <_>
          1 31 6 12 2.</_>
        <_>
          7 43 6 12 2.</_></rects>
      <tilted>0</tilted></_>
    <_>
      <rects>
        <_>
          1 35 6 5 -1.</_>
        <_>
          3 35 2 5 3.</_></rects>
      <tilted>0</tilted></_>
    <_>
      <rects>
        <_>
          1 40 6 24 -1.</_>
        <_>
          3 40 2 24 3.</_></rects>
      <tilted>0</tilted></_>
    <_>
      <rects>
        <_>
          1 62 6 17 -1.</_>
        <_>
          3 62 2 17 3.</_></rects>
      <tilted>0</tilted></_>
    <_>
      <rects>
        <_>
          1 65 4 4 -1.</_>
        <_>
          3 65 2 4 2.</_></rects>
      <tilted>0</tilted></_>
    <_>
      <rects>
        <_>
          1 70 3 7 -1.</_>
        <_>
          2 70 1 7 3.</_></rects>
      <tilted>0</tilted></_>
    <_>
      <rects>
        <_>
          2 37 4 1 -1.</_>
        <_>
          3 37 2 1 2.</_></rects>
      <tilted>0</tilted></_>
    <_>
      <rects>
        <_>
          2 63 6 5 -1.</_>
        <_>
          4 63 2 5 3.</_></rects>
      <tilted>0</tilted></_>
    <_>
      <rects>
        <_>
          2 65 6 1 -1.</_>
        <_>
          4 65 2 1 3.</_></rects>
      <tilted>0</tilted></_>
    <_>
      <rects>
        <_>
          3 7 26 16 -1.</_>
        <_>
          3 11 26 8 2.</_></rects>
      <tilted>0</tilted></_>
    <_>
      <rects>
        <_>
          3 30 2 3 -1.</_>
        <_>
          2 31 2 1 3.</_></rects>
      <tilted>1</tilted></_>
    <_>
      <rects>
        <_>
          3 33 4 9 -1.</_>
        <_>
          4 33 2 9 2.</_></rects>
      <tilted>0</tilted></_>
    <_>
      <rects>
        <_>
          3 46 15 9 -1.</_>
        <_>
          8 46 5 9 3.</_></rects>
      <tilted>0</tilted></_>
    <_>
      <rects>
        <_>
          3 50 42 2 -1.</_>
        <_>
          3 50 21 1 2.</_>
        <_>
          24 51 21 1 2.</_></rects>
      <tilted>0</tilted></_>
    <_>
      <rects>
        <_>
          3 68 2 1 -1.</_>
        <_>
          4 68 1 1 2.</_></rects>
      <tilted>0</tilted></_>
    <_>
      <rects>
        <_>
          4 25 2 4 -1.</_>
        <_>
          3 26 2 2 2.</_></rects>
      <tilted>1</tilted></_>
    <_>
      <rects>
        <_>
          4 37 2 6 -1.</_>
        <_>
          4 37 1 3 2.</_>
        <_>
          5 40 1 3 2.</_></rects>
      <tilted>0</tilted></_>
    <_>
      <rects>
        <_>
          4 39 3 3 -1.</_>
        <_>
          5 39 1 3 3.</_></rects>
      <tilted>0</tilted></_>
    <_>
      <rects>
        <_>
          4 41 4 44 -1.</_>
        <_>
          4 41 2 22 2.</_>
        <_>
          6 63 2 22 2.</_></rects>
      <tilted>0</tilted></_>
    <_>
      <rects>
        <_>
          4 42 4 38 -1.</_>
        <_>
          4 42 2 19 2.</_>
        <_>
          6 61 2 19 2.</_></rects>
      <tilted>0</tilted></_>
    <_>
      <rects>
        <_>
          5 38 2 28 -1.</_>
        <_>
          5 38 1 14 2.</_>
        <_>
          6 52 1 14 2.</_></rects>
      <tilted>0</tilted></_>
    <_>
      <rects>
        <_>
          5 40 12 26 -1.</_>
        <_>
          5 40 6 13 2.</_>
        <_>
          11 53 6 13 2.</_></rects>
      <tilted>0</tilted></_>
    <_>
      <rects>
        <_>
          5 46 16 12 -1.</_>
        <_>
          9 46 8 12 2.</_></rects>
      <tilted>0</tilted></_>
    <_>
      <rects>
        <_>
          5 60 2 2 -1.</_>
        <_>
          6 60 1 2 2.</_></rects>
      <tilted>0</tilted></_>
    <_>
      <rects>
        <_>
          6 43 2 2 -1.</_>
        <_>
          7 43 1 2 2.</_></rects>
      <tilted>0</tilted></_>
    <_>
      <rects>
        <_>
          6 44 4 26 -1.</_>
        <_>
          6 44 2 13 2.</_>
        <_>
          8 57 2 13 2.</_></rects>
      <tilted>0</tilted></_>
    <_>
      <rects>
        <_>
          6 44 10 6 -1.</_>
        <_>
          11 44 5 6 2.</_></rects>
      <tilted>0</tilted></_>
    <_>
      <rects>
        <_>
          6 47 10 28 -1.</_>
        <_>
          6 47 5 14 2.</_>
        <_>
          11 61 5 14 2.</_></rects>
      <tilted>0</tilted></_>
    <_>
      <rects>
        <_>
          6 53 6 16 -1.</_>
        <_>
          6 53 3 8 2.</_>
        <_>
          9 61 3 8 2.</_></rects>
      <tilted>0</tilted></_>
    <_>
      <rects>
        <_>
          6 54 8 2 -1.</_>
        <_>
          8 54 4 2 2.</_></rects>
      <tilted>0</tilted></_>
    <_>
      <rects>
        <_>
          7 37 4 12 -1.</_>
        <_>
          7 37 2 6 2.</_>
        <_>
          9 43 2 6 2.</_></rects>
      <tilted>0</tilted></_>
    <_>
      <rects>
        <_>
          7 37 22 21 -1.</_>
        <_>
          18 37 11 21 2.</_></rects>
      <tilted>0</tilted></_>
    <_>
      <rects>
        <_>
          7 48 4 12 -1.</_>
        <_>
          7 48 2 6 2.</_>
        <_>
          9 54 2 6 2.</_></rects>
      <tilted>0</tilted></_>
    <_>
      <rects>
        <_>
          7 49 4 8 -1.</_>
        <_>
          7 49 2 4 2.</_>
        <_>
          9 53 2 4 2.</_></rects>
      <tilted>0</tilted></_>
    <_>
      <rects>
        <_>
          7 49 6 12 -1.</_>
        <_>
          7 49 3 6 2.</_>
        <_>
          10 55 3 6 2.</_></rects>
      <tilted>0</tilted></_>
    <_>
      <rects>
        <_>
          7 50 6 8 -1.</_>
        <_>
          7 50 3 4 2.</_>
        <_>
          10 54 3 4 2.</_></rects>
      <tilted>0</tilted></_>
    <_>
      <rects>
        <_>
          8 4 1 6 -1.</_>
        <_>
          8 4 1 3 2.</_></rects>
      <tilted>1</tilted></_>
    <_>
      <rects>
        <_>
          8 46 2 6 -1.</_>
        <_>
          8 46 1 3 2.</_>
        <_>
          9 49 1 3 2.</_></rects>
      <tilted>0</tilted></_>
    <_>
      <rects>
        <_>
          8 48 2 10 -1.</_>
        <_>
          8 48 1 5 2.</_>
        <_>
          9 53 1 5 2.</_></rects>
      <tilted>0</tilted></_>
    <_>
      <rects>
        <_>
          8 50 2 2 -1.</_>
        <_>
          9 50 1 2 2.</_></rects>
      <tilted>0</tilted></_>
    <_>
      <rects>
        <_>
          8 50 18 5 -1.</_>
        <_>
          17 50 9 5 2.</_></rects>
      <tilted>0</tilted></_>
    <_>
      <rects>
        <_>
          9 47 2 16 -1.</_>
        <_>
          9 47 1 8 2.</_>
        <_>
          10 55 1 8 2.</_></rects>
      <tilted>0</tilted></_>
    <_>
      <rects>
        <_>
          9 49 8 9 -1.</_>
        <_>
          11 51 4 9 2.</_></rects>
      <tilted>1</tilted></_>
    <_>
      <rects>
        <_>
          10 28 2 28 -1.</_>
        <_>
          10 28 1 14 2.</_>
        <_>
          11 42 1 14 2.</_></rects>
      <tilted>0</tilted></_>
    <_>
      <rects>
        <_>
          10 45 2 18 -1.</_>
        <_>
          10 45 1 9 2.</_>
        <_>
          11 54 1 9 2.</_></rects>
      <tilted>0</tilted></_>
    <_>
      <rects>
        <_>
          10 46 10 10 -1.</_>
        <_>
          15 46 5 10 2.</_></rects>
      <tilted>0</tilted></_>
    <_>
      <rects>
        <_>
          10 46 18 6 -1.</_>
        <_>
          19 46 9 6 2.</_></rects>
      <tilted>0</tilted></_>
    <_>
      <rects>
        <_>
          10 49 2 4 -1.</_>
        <_>
          11 49 1 4 2.</_></rects>
      <tilted>0</tilted></_>
    <_>
      <rects>
        <_>
          10 49 10 5 -1.</_>
        <_>
          15 49 5 5 2.</_></rects>
      <tilted>0</tilted></_>
    <_>
      <rects>
        <_>
          10 55 12 2 -1.</_>
        <_>
          13 55 6 2 2.</_></rects>
      <tilted>0</tilted></_>
    <_>
      <rects>
        <_>
          11 50 28 30 -1.</_>
        <_>
          25 50 14 30 2.</_></rects>
      <tilted>0</tilted></_>
    <_>
      <rects>
        <_>
          13 21 29 8 -1.</_>
        <_>
          11 23 29 4 2.</_></rects>
      <tilted>1</tilted></_>
    <_>
      <rects>
        <_>
          13 38 25 6 -1.</_>
        <_>
          11 40 25 2 3.</_></rects>
      <tilted>1</tilted></_>
    <_>
      <rects>
        <_>
          13 46 6 12 -1.</_>
        <_>
          15 48 2 12 3.</_></rects>
      <tilted>1</tilted></_>
    <_>
      <rects>
        <_>
          13 49 17 28 -1.</_>
        <_>
          13 56 17 14 2.</_></rects>
      <tilted>0</tilted></_>
    <_>
      <rects>
        <_>
          15 56 20 15 -1.</_>
        <_>
          15 56 10 15 2.</_></rects>
      <tilted>1</tilted></_>
    <_>
      <rects>
        <_>
          16 34 18 24 -1.</_>
        <_>
          16 42 18 8 3.</_></rects>
      <tilted>0</tilted></_>
    <_>
      <rects>
        <_>
          16 55 16 8 -1.</_>
        <_>
          14 57 16 4 2.</_></rects>
      <tilted>1</tilted></_>
    <_>
      <rects>
        <_>
          17 18 20 62 -1.</_>
        <_>
          27 18 10 62 2.</_></rects>
      <tilted>0</tilted></_>
    <_>
      <rects>
        <_>
          17 58 20 9 -1.</_>
        <_>
          17 58 10 9 2.</_></rects>
      <tilted>1</tilted></_>
    <_>
      <rects>
        <_>
          18 0 8 2 -1.</_>
        <_>
          18 0 4 1 2.</_>
        <_>
          22 1 4 1 2.</_></rects>
      <tilted>0</tilted></_>
    <_>
      <rects>
        <_>
          18 14 15 12 -1.</_>
        <_>
          18 18 15 4 3.</_></rects>
      <tilted>0</tilted></_>
    <_>
      <rects>
        <_>
          18 28 12 41 -1.</_>
        <_>
          24 28 6 41 2.</_></rects>
      <tilted>0</tilted></_>
    <_>
      <rects>
        <_>
          18 52 10 3 -1.</_>
        <_>
          17 53 10 1 3.</_></rects>
      <tilted>1</tilted></_>
    <_>
      <rects>
        <_>
          20 41 2 20 -1.</_>
        <_>
          15 46 2 10 2.</_></rects>
      <tilted>1</tilted></_>
    <_>
      <rects>
        <_>
          20 76 20 20 -1.</_>
        <_>
          20 86 20 10 2.</_></rects>
      <tilted>0</tilted></_>
    <_>
      <rects>
        <_>
          21 14 2 9 -1.</_>
        <_>
          21 17 2 3 3.</_></rects>
      <tilted>0</tilted></_>
    <_>
      <rects>
        <_>
          21 32 4 28 -1.</_>
        <_>
          21 39 4 14 2.</_></rects>
      <tilted>0</tilted></_>
    <_>
      <rects>
        <_>
          21 43 2 2 -1.</_>
        <_>
          21 43 2 1 2.</_></rects>
      <tilted>1</tilted></_>
    <_>
      <rects>
        <_>
          21 70 6 10 -1.</_>
        <_>
          21 75 6 5 2.</_></rects>
      <tilted>0</tilted></_>
    <_>
      <rects>
        <_>
          22 24 3 54 -1.</_>
        <_>
          23 24 1 54 3.</_></rects>
      <tilted>0</tilted></_>
    <_>
      <rects>
        <_>
          22 43 10 3 -1.</_>
        <_>
          22 44 10 1 3.</_></rects>
      <tilted>0</tilted></_>
    <_>
      <rects>
        <_>
          22 46 7 4 -1.</_>
        <_>
          22 48 7 2 2.</_></rects>
      <tilted>0</tilted></_>
    <_>
      <rects>
        <_>
          22 65 5 24 -1.</_>
        <_>
          22 77 5 12 2.</_></rects>
      <tilted>0</tilted></_>
    <_>
      <rects>
        <_>
          23 38 11 4 -1.</_>
        <_>
          23 40 11 2 2.</_></rects>
      <tilted>0</tilted></_>
    <_>
      <rects>
        <_>
          23 40 6 4 -1.</_>
        <_>
          23 40 6 2 2.</_></rects>
      <tilted>1</tilted></_>
    <_>
      <rects>
        <_>
          24 18 3 57 -1.</_>
        <_>
          25 37 1 19 9.</_></rects>
      <tilted>0</tilted></_>
    <_>
      <rects>
        <_>
          25 37 3 12 -1.</_>
        <_>
          26 41 1 4 9.</_></rects>
      <tilted>0</tilted></_>
    <_>
      <rects>
        <_>
          25 39 3 7 -1.</_>
        <_>
          26 39 1 7 3.</_></rects>
      <tilted>0</tilted></_>
    <_>
      <rects>
        <_>
          25 41 4 2 -1.</_>
        <_>
          26 41 2 2 2.</_></rects>
      <tilted>0</tilted></_>
    <_>
      <rects>
        <_>
          25 48 14 4 -1.</_>
        <_>
          25 49 14 2 2.</_></rects>
      <tilted>0</tilted></_>
    <_>
      <rects>
        <_>
          26 4 1 20 -1.</_>
        <_>
          26 9 1 10 2.</_></rects>
      <tilted>0</tilted></_>
    <_>
      <rects>
        <_>
          26 36 8 8 -1.</_>
        <_>
          30 36 4 8 2.</_></rects>
      <tilted>0</tilted></_>
    <_>
      <rects>
        <_>
          26 39 8 8 -1.</_>
        <_>
          26 39 4 4 2.</_>
        <_>
          30 43 4 4 2.</_></rects>
      <tilted>0</tilted></_>
    <_>
      <rects>
        <_>
          26 40 3 6 -1.</_>
        <_>
          27 40 1 6 3.</_></rects>
      <tilted>0</tilted></_>
    <_>
      <rects>
        <_>
          26 41 7 3 -1.</_>
        <_>
          25 42 7 1 3.</_></rects>
      <tilted>1</tilted></_>
    <_>
      <rects>
        <_>
          27 30 4 4 -1.</_>
        <_>
          26 31 4 2 2.</_></rects>
      <tilted>1</tilted></_>
    <_>
      <rects>
        <_>
          27 85 4 2 -1.</_>
        <_>
          28 86 2 2 2.</_></rects>
      <tilted>1</tilted></_>
    <_>
      <rects>
        <_>
          29 32 2 4 -1.</_>
        <_>
          29 32 1 4 2.</_></rects>
      <tilted>1</tilted></_>
    <_>
      <rects>
        <_>
          29 34 2 2 -1.</_>
        <_>
          29 34 1 2 2.</_></rects>
      <tilted>1</tilted></_>
    <_>
      <rects>
        <_>
          29 38 6 3 -1.</_>
        <_>
          29 38 3 3 2.</_></rects>
      <tilted>1</tilted></_>
    <_>
      <rects>
        <_>
          29 43 6 3 -1.</_>
        <_>
          31 45 2 3 3.</_></rects>
      <tilted>1</tilted></_>
    <_>
      <rects>
        <_>
          30 37 4 5 -1.</_>
        <_>
          31 38 2 5 2.</_></rects>
      <tilted>1</tilted></_>
    <_>
      <rects>
        <_>
          30 40 1 4 -1.</_>
        <_>
          30 40 1 2 2.</_></rects>
      <tilted>1</tilted></_>
    <_>
      <rects>
        <_>
          30 49 2 4 -1.</_>
        <_>
          31 49 1 4 2.</_></rects>
      <tilted>0</tilted></_>
    <_>
      <rects>
        <_>
          31 40 10 4 -1.</_>
        <_>
          36 40 5 4 2.</_></rects>
      <tilted>0</tilted></_>
    <_>
      <rects>
        <_>
          31 49 6 2 -1.</_>
        <_>
          33 49 2 2 3.</_></rects>
      <tilted>0</tilted></_>
    <_>
      <rects>
        <_>
          32 2 4 22 -1.</_>
        <_>
          32 13 4 11 2.</_></rects>
      <tilted>0</tilted></_>
    <_>
      <rects>
        <_>
          32 45 2 10 -1.</_>
        <_>
          32 45 1 5 2.</_>
        <_>
          33 50 1 5 2.</_></rects>
      <tilted>0</tilted></_>
    <_>
      <rects>
        <_>
          32 47 4 4 -1.</_>
        <_>
          32 48 4 2 2.</_></rects>
      <tilted>0</tilted></_>
    <_>
      <rects>
        <_>
          32 48 2 9 -1.</_>
        <_>
          33 48 1 9 2.</_></rects>
      <tilted>0</tilted></_>
    <_>
      <rects>
        <_>
          33 34 2 4 -1.</_>
        <_>
          33 35 2 2 2.</_></rects>
      <tilted>0</tilted></_>
    <_>
      <rects>
        <_>
          34 34 3 21 -1.</_>
        <_>
          35 41 1 7 9.</_></rects>
      <tilted>0</tilted></_>
    <_>
      <rects>
        <_>
          34 45 6 16 -1.</_>
        <_>
          34 45 3 8 2.</_>
        <_>
          37 53 3 8 2.</_></rects>
      <tilted>0</tilted></_>
    <_>
      <rects>
        <_>
          36 58 12 27 -1.</_>
        <_>
          36 58 6 27 2.</_></rects>
      <tilted>1</tilted></_>
    <_>
      <rects>
        <_>
          37 46 4 2 -1.</_>
        <_>
          38 46 2 2 2.</_></rects>
      <tilted>0</tilted></_>
    <_>
      <rects>
        <_>
          37 48 1 8 -1.</_>
        <_>
          37 48 1 4 2.</_></rects>
      <tilted>1</tilted></_>
    <_>
      <rects>
        <_>
          37 49 4 4 -1.</_>
        <_>
          38 49 2 4 2.</_></rects>
      <tilted>0</tilted></_>
    <_>
      <rects>
        <_>
          38 33 4 24 -1.</_>
        <_>
          38 33 2 12 2.</_>
        <_>
          40 45 2 12 2.</_></rects>
      <tilted>0</tilted></_>
    <_>
      <rects>
        <_>
          38 42 6 14 -1.</_>
        <_>
          38 42 3 7 2.</_>
        <_>
          41 49 3 7 2.</_></rects>
      <tilted>0</tilted></_>
    <_>
      <rects>
        <_>
          38 46 4 1 -1.</_>
        <_>
          39 46 2 1 2.</_></rects>
      <tilted>0</tilted></_>
    <_>
      <rects>
        <_>
          39 34 4 20 -1.</_>
        <_>
          39 34 2 10 2.</_>
        <_>
          41 44 2 10 2.</_></rects>
      <tilted>0</tilted></_>
    <_>
      <rects>
        <_>
          39 40 4 14 -1.</_>
        <_>
          39 40 2 7 2.</_>
        <_>
          41 47 2 7 2.</_></rects>
      <tilted>0</tilted></_>
    <_>
      <rects>
        <_>
          39 45 4 18 -1.</_>
        <_>
          39 45 2 9 2.</_>
        <_>
          41 54 2 9 2.</_></rects>
      <tilted>0</tilted></_>
    <_>
      <rects>
        <_>
          39 48 2 10 -1.</_>
        <_>
          39 48 1 5 2.</_>
        <_>
          40 53 1 5 2.</_></rects>
      <tilted>0</tilted></_>
    <_>
      <rects>
        <_>
          39 49 2 6 -1.</_>
        <_>
          39 49 1 3 2.</_>
        <_>
          40 52 1 3 2.</_></rects>
      <tilted>0</tilted></_>
    <_>
      <rects>
        <_>
          39 49 8 16 -1.</_>
        <_>
          39 49 4 8 2.</_>
        <_>
          43 57 4 8 2.</_></rects>
      <tilted>0</tilted></_>
    <_>
      <rects>
        <_>
          40 0 3 63 -1.</_>
        <_>
          40 21 3 21 3.</_></rects>
      <tilted>0</tilted></_>
    <_>
      <rects>
        <_>
          40 47 4 8 -1.</_>
        <_>
          41 47 2 8 2.</_></rects>
      <tilted>0</tilted></_>
    <_>
      <rects>
        <_>
          40 49 2 12 -1.</_>
        <_>
          40 49 1 6 2.</_>
        <_>
          41 55 1 6 2.</_></rects>
      <tilted>0</tilted></_>
    <_>
      <rects>
        <_>
          40 50 2 6 -1.</_>
        <_>
          40 50 1 3 2.</_>
        <_>
          41 53 1 3 2.</_></rects>
      <tilted>0</tilted></_>
    <_>
      <rects>
        <_>
          40 61 4 2 -1.</_>
        <_>
          41 61 2 2 2.</_></rects>
      <tilted>0</tilted></_>
    <_>
      <rects>
        <_>
          42 41 2 8 -1.</_>
        <_>
          42 41 1 4 2.</_>
        <_>
          43 45 1 4 2.</_></rects>
      <tilted>0</tilted></_>
    <_>
      <rects>
        <_>
          42 60 3 1 -1.</_>
        <_>
          43 60 1 1 3.</_></rects>
      <tilted>0</tilted></_>
    <_>
      <rects>
        <_>
          44 34 3 3 -1.</_>
        <_>
          45 34 1 3 3.</_></rects>
      <tilted>0</tilted></_>
    <_>
      <rects>
        <_>
          44 35 2 2 -1.</_>
        <_>
          45 35 1 2 2.</_></rects>
      <tilted>0</tilted></_>
    <_>
      <rects>
        <_>
          44 62 3 2 -1.</_>
        <_>
          45 62 1 2 3.</_></rects>
      <tilted>0</tilted></_>
    <_>
      <rects>
        <_>
          45 68 3 16 -1.</_>
        <_>
          46 68 1 16 3.</_></rects>
      <tilted>0</tilted></_>
    <_>
      <rects>
        <_>
          46 53 2 29 -1.</_>
        <_>
          47 53 1 29 2.</_></rects>
      <tilted>0</tilted></_></features></cascade>
</opencv_storage>
